#ifndef MODEL_WEIGHTS_H
#define MODEL_WEIGHTS_H

const int INPUT_SIZE = 7;
const int H1_SIZE = 32;
const int H2_SIZE = 16;
const int OUTPUT_SIZE = 4;

const float FC1_WEIGHT[] = {-0.25500295f, 0.28094032f, 0.19946930f, -0.28455859f, -0.22909558f, 0.08108572f, 0.31557277f, -0.49967358f, -0.00833017f, 0.17096861f, -0.14360331f, 0.31005183f, 0.25442463f, 0.03607290f, -0.19342090f, -0.31940037f, -0.32940397f, 0.31602073f, 0.33500347f, -0.20923749f, -0.15412283f, -0.26751143f, -0.27641475f, 0.05768027f, -0.09232599f, -0.20887589f, -0.34098679f, -0.01973126f, -0.14453256f, -0.40398383f, -0.38012180f, 0.15526201f, -0.35956928f, -0.11998396f, 0.17846973f, -0.13613760f, -0.20685399f, 0.40310332f, -0.37700650f, 0.42008823f, 0.26438046f, -0.40973148f, 0.38570791f, -0.46768340f, -0.45910600f, -0.14460455f, -0.23984601f, 0.09011596f, 0.41540712f, 0.44447118f, 0.23025759f, -0.43095511f, -0.24016577f, 0.01429951f, -0.14924878f, 0.43213111f, 0.48197472f, 0.10513527f, -0.36039397f, -0.22643547f, 0.20561570f, -0.04381750f, -0.37422585f, -0.08834487f, -0.26697305f, 0.06224536f, -0.04940877f, 0.31600407f, 0.50184119f, 0.28457016f, 0.10773746f, -0.43580416f, 0.11381400f, 0.10291707f, -0.21134679f, -0.09931147f, 0.24167036f, 0.25780734f, 0.37175342f, -0.40592343f, 0.01789604f, -0.21327837f, -0.46569741f, 0.01596573f, 0.43927434f, -0.10221130f, 0.30193806f, 0.19052647f, -0.27945343f, 0.20489098f, 0.44095951f, 0.41342011f, 0.45266557f, 0.01636243f, -0.11371300f, 0.39567417f, -0.34912968f, -0.49021953f, 0.21445520f, -0.37742734f, -0.05148725f, 0.27020150f, -0.05455402f, -0.19261628f, 0.21535881f, -0.02983448f, -0.45530111f, 0.16156287f, 0.06711370f, 0.10425768f, 0.17427607f, -0.07501084f, 0.07769039f, -0.45900765f, -0.11854408f, 0.42108756f, -0.15222669f, -0.26593316f, -0.14034410f, -0.18971349f, -0.29506069f, 0.30518100f, -0.32868221f, 0.04462174f, 0.27229103f, -0.20935774f, 0.46468970f, 0.12321839f, -0.04925978f, 0.20916919f, 0.20315187f, 0.09781630f, -0.19167164f, 0.40881750f, 0.25368297f, -0.37592706f, 0.23156562f, -0.22145252f, 0.11447231f, 0.01545696f, 0.25084260f, -0.05100072f, 0.14986897f, -0.23787382f, -0.05964029f, -0.16725613f, -0.37180370f, -0.19542859f, 0.36155495f, 0.30989555f, -0.12893268f, -0.21854819f, -0.23650797f, -0.28634879f, -0.23973869f, -0.01186264f, -0.22747727f, -0.25038326f, -0.04864695f, -0.05155901f, -0.12257490f, 0.24501371f, 0.39103720f, -0.21821913f, -0.12083436f, 0.16866834f, -0.37030113f, 0.03523340f, 0.09467589f, 0.46051016f, -0.11367130f, -0.43840444f, -0.31793839f, -0.25059226f, 0.05070391f, -0.36544758f, 0.20099203f, 0.04579774f, -0.05462255f, -0.24155767f, 0.10644878f, -0.18678258f, -0.45188907f, 0.49442151f, 0.37110296f, -0.32583287f, 0.19969614f, -0.20493461f, -0.02680857f, 0.31355369f, -0.09883478f, -0.00016555f, 0.22243848f, -0.13076931f, 0.14436685f, -0.12106992f, 0.02156751f, 0.01048404f, -0.38957807f, 0.47352335f, 0.18466732f, 0.16566402f, -0.25590685f, 0.21932591f, 0.30502349f, 0.14812358f, 0.20429163f, -0.10696055f, 0.35236728f, 0.27491820f, -0.32201269f, -0.25444373f, 0.30108878f, 0.05786553f, -0.24112432f, 0.13110185f, 0.47315189f, -0.21044037f, 0.40326592f, -0.23623082f, 0.07117702f, -0.26231289f, -0.38106689f, -0.33024505f};

const float FC1_BIAS[] = {0.11132152f, 0.06487225f, 0.14517635f, -0.10865959f, 0.36174917f, -0.13944294f, -0.05847904f, -0.29353794f, 0.28788921f, -0.14903919f, -0.07534458f, 0.11040802f, 0.41258034f, -0.18348664f, 0.33817226f, 0.15032268f, 0.49678856f, -0.12120990f, -0.10738584f, 0.21924455f, -0.28146407f, 0.01779677f, 0.36683246f, 0.16212979f, 0.42415425f, -0.04080510f, 0.45447990f, -0.02073461f, 0.31475449f, -0.27912396f, 0.08036114f, -0.21241340f};

const float FC2_WEIGHT[] = {-0.04676864f, 0.07112182f, -0.02252681f, 0.07211886f, 0.12665452f, -0.18233854f, 0.19076183f, -0.19027883f, 0.12936851f, 0.00063642f, 0.04722219f, -0.19796610f, -0.03415668f, -0.19213462f, 0.19266176f, 0.28705841f, 0.20399794f, -0.08385454f, -0.11466235f, -0.06470912f, -0.26252636f, -0.19049107f, 0.24358335f, -0.21164174f, -0.03136888f, 0.07034878f, 0.08897922f, -0.04851231f, 0.17186329f, -0.21859339f, -0.01371161f, 0.03089587f, -0.02343907f, -0.16130273f, -0.08270120f, -0.06723099f, 0.12970799f, 0.11744774f, 0.06820532f, -0.02182515f, 0.03420312f, 0.03657744f, -0.18173693f, 0.02708392f, -0.08821069f, -0.17802949f, 0.01088862f, 0.02918637f, -0.17344694f, -0.06120349f, 0.08905248f, -0.10487241f, -0.05931570f, -0.13852055f, 0.00988338f, 0.09667934f, 0.01069927f, -0.06902973f, -0.18893434f, -0.13344435f, -0.08354483f, 0.10141034f, 0.03861817f, -0.05257847f, 0.27376300f, -0.01874524f, 0.08502372f, 0.04298535f, -0.06204571f, 0.01385157f, -0.04900604f, -0.12418500f, -0.17447180f, 0.01547651f, 0.00834928f, -0.05175802f, -0.15529934f, -0.24200274f, 0.10227932f, -0.01246733f, 0.20526679f, 0.04475157f, -0.11758383f, 0.04274550f, 0.04246939f, 0.25282821f, 0.29991731f, -0.09183680f, -0.05031856f, 0.26215416f, 0.07022089f, 0.01982044f, 0.01572335f, 0.05595878f, 0.01809659f, 0.04505497f, 0.11249188f, -0.01706595f, -0.13107990f, 0.18171398f, -0.13924010f, 0.20151667f, -0.05847121f, 0.17784587f, -0.06569087f, 0.15973219f, -0.07839052f, 0.14322139f, -0.01811822f, 0.20999275f, -0.17456667f, 0.16846418f, 0.01608036f, 0.22664100f, 0.18352820f, 0.25080073f, 0.25799146f, -0.05482889f, 0.25853959f, 0.19806449f, 0.03513723f, 0.06831177f, 0.13362072f, -0.11403246f, -0.05116122f, 0.08587757f, 0.21528192f, -0.03537017f, 0.08980589f, 0.02936981f, 0.02167523f, 0.12879753f, 0.16648899f, 0.08574336f, -0.15713915f, -0.11539984f, 0.04163960f, 0.06240449f, -0.05083917f, 0.01269502f, 0.07078227f, 0.03229471f, -0.17568322f, -0.02681298f, -0.09367508f, 0.15696299f, -0.04542932f, -0.04007420f, 0.06266368f, 0.16076763f, -0.01272867f, 0.07626598f, 0.16325609f, 0.00694768f, -0.06781128f, -0.20929073f, -0.04871281f, 0.04886801f, 0.14402975f, -0.08834971f, -0.17493036f, -0.17615251f, 0.18036793f, 0.08295354f, 0.10749654f, -0.01714320f, 0.22287878f, -0.17658813f, 0.07693090f, -0.07679767f, 0.12297801f, 0.22139356f, 0.13035049f, 0.09812026f, 0.18127447f, 0.10248642f, 0.17902063f, 0.04408683f, -0.02117272f, 0.15141712f, -0.04348614f, -0.03169416f, -0.03421780f, -0.14436847f, -0.04944631f, -0.09283732f, -0.17847577f, 0.17575701f, 0.01008733f, 0.02661274f, -0.10688692f, 0.01191637f, 0.08342420f, 0.19951995f, 0.08433644f, 0.07287089f, 0.17320909f, -0.03510637f, 0.02594770f, -0.10747465f, -0.15291387f, -0.04022514f, -0.02667487f, -0.03483623f, -0.11704881f, 0.01359366f, -0.10348940f, 0.13945132f, -0.01502677f, 0.12643875f, -0.02533905f, -0.04768761f, -0.00656161f, -0.04830617f, 0.24941446f, -0.04673730f, 0.28065377f, 0.07097831f, 0.21022326f, 0.04296799f, -0.06177444f, -0.06389902f, 0.27881068f, 0.11601208f, 0.08867984f, 0.02110350f, -0.03941127f, 0.00030627f, 0.03979569f, 0.14298655f, 0.16089879f, -0.25032669f, -0.00787520f, -0.00089848f, 0.11479336f, 0.15990411f, 0.28104436f, 0.11826881f, -0.22813575f, -0.00235366f, -0.25374898f, 0.17549671f, -0.15375856f, 0.13912417f, -0.05627798f, 0.11032689f, -0.22473122f, 0.24414536f, 0.24879420f, 0.10222951f, 0.22116809f, 0.11677872f, -0.02362959f, 0.13772187f, 0.19174662f, 0.10878633f, -0.13266858f, -0.25967020f, -0.18582122f, -0.13296394f, 0.02594513f, 0.01768027f, -0.18952624f, 0.18593888f, 0.27856740f, 0.15964982f, 0.06787754f, 0.01350045f, -0.01804279f, 0.31230751f, -0.08566785f, -0.13076127f, 0.18851444f, -0.00922535f, 0.01906513f, 0.03838037f, 0.11507889f, -0.13222247f, 0.17685081f, 0.26490784f, 0.12707867f, -0.09419902f, -0.17274766f, 0.28880408f, 0.10452290f, 0.00423390f, -0.08876778f, 0.01701860f, 0.02708082f, -0.02099572f, -0.15332887f, -0.18041632f, 0.01957928f, 0.04082017f, -0.04352892f, -0.05806784f, -0.16686444f, -0.03974691f, -0.00782557f, 0.04559299f, -0.02491946f, -0.18059659f, -0.12712334f, -0.01226937f, -0.10317656f, 0.12639900f, -0.07381820f, -0.16322517f, -0.18585940f, 0.07738592f, -0.03991479f, -0.16823506f, 0.13752601f, 0.01944333f, -0.17657328f, 0.13246940f, -0.10831706f, -0.19158915f, 0.08676945f, 0.01894893f, 0.13977098f, 0.07542165f, -0.06974930f, 0.08676758f, 0.12435940f, 0.07555414f, 0.04167611f, 0.16967817f, -0.05135744f, -0.00717595f, 0.13252883f, 0.23412028f, 0.19548187f, 0.04089620f, -0.06255660f, -0.04192742f, -0.22121023f, 0.15486093f, -0.14181489f, -0.06276760f, 0.04877203f, -0.07852482f, 0.01470860f, 0.00985303f, 0.20070587f, 0.00998427f, 0.12690890f, -0.12405699f, -0.10101444f, -0.06482601f, 0.22189331f, 0.25293627f, 0.10120964f, -0.05087651f, -0.00143234f, -0.00835576f, -0.13077472f, -0.17717274f, 0.04174145f, -0.17646615f, -0.05085858f, -0.10491433f, -0.13563308f, 0.01259362f, -0.08525185f, -0.06315286f, -0.14765532f, 0.00604457f, 0.05802496f, 0.01290712f, -0.07317313f, -0.08175239f, -0.05070044f, -0.19530636f, 0.00922648f, -0.18360236f, -0.10373181f, 0.01160219f, -0.07242020f, -0.04143826f, 0.05689353f, 0.11526451f, -0.07186873f, 0.04094512f, 0.06488495f, -0.21192785f, -0.00986810f, -0.03859530f, 0.16900349f, -0.02686563f, 0.28273022f, 0.14463612f, 0.22825755f, -0.05749306f, 0.10268262f, 0.17549610f, 0.20561086f, 0.14785135f, -0.02915914f, -0.02039921f, 0.25406978f, 0.13225734f, 0.25111169f, -0.02156552f, 0.09022146f, -0.02763669f, -0.12841623f, 0.19011988f, -0.13677999f, -0.06631894f, -0.24894476f, 0.02637646f, 0.17998901f, -0.10156645f, -0.02184993f, 0.12208950f, -0.09355672f, -0.07361975f, 0.16685331f, -0.22428420f, 0.21021764f, -0.06667642f, 0.27633595f, 0.13254745f, 0.22942044f, -0.04834380f, 0.04940144f, 0.08567470f, 0.22972904f, -0.01765711f, 0.14918719f, -0.09904254f, 0.18016115f, 0.12183792f, 0.19496524f, 0.14747113f, 0.10758221f, -0.12382357f, -0.19599046f, 0.13837932f, -0.06675624f, -0.02935476f, 0.07766987f, 0.04275379f, 0.00725792f, -0.02733825f, -0.08944517f, 0.02600930f, 0.24801420f, 0.09991471f, -0.03327502f, 0.00244817f, -0.08836884f, 0.15555802f, 0.02818794f, 0.04797156f, 0.19313304f, 0.27494594f, -0.13877094f, 0.28815040f, 0.16274294f, 0.18405914f, -0.13099815f, -0.09225156f, -0.07256074f, 0.10086955f, -0.01050732f, 0.01042051f, -0.02754812f, 0.02319748f, -0.00446842f, 0.20080857f, -0.01357640f, 0.07760058f, 0.01917453f, -0.11095688f, 0.02526220f, 0.02778713f, 0.07610199f, 0.21819988f, 0.21630700f, 0.16285637f, 0.12034491f, 0.15184535f, 0.23030491f, -0.01163999f, -0.26115149f, -0.04004350f, -0.08219200f, 0.09035516f, -0.02892590f, -0.15056945f, 0.05827708f, 0.18631764f, -0.14959794f, 0.15330455f, 0.00640540f, 0.20355511f, -0.24594152f, -0.28143758f, -0.08147544f, 0.00919495f, -0.02560639f, 0.14216951f, 0.11845685f, 0.20176390f, 0.16185747f, -0.19594824f, 0.03325031f, -0.01327168f, 0.12806532f, 0.06059784f};

const float FC2_BIAS[] = {0.03783687f, -0.13848658f, 0.22688684f, 0.17981048f, -0.04910126f, -0.03933200f, 0.05484930f, 0.01961491f, 0.04150643f, -0.12616244f, 0.22709084f, 0.01314915f, 0.21125156f, 0.11957157f, 0.06167669f, 0.25207692f};

const float FC3_WEIGHT[] = {-0.34300902f, -0.16246793f, -0.32709751f, 0.16385356f, -0.29357249f, 0.04520821f, -0.36199895f, 0.13158384f, 0.06397432f, 0.19606173f, -0.04484253f, -0.11892786f, 0.09015318f, 0.12174081f, 0.28858158f, -0.35248902f, 0.35927442f, 0.12985401f, -0.13330770f, -0.23577368f, 0.09931385f, 0.23203628f, -0.21742585f, 0.09261876f, -0.23521128f, -0.05664128f, -0.36530459f, 0.15639672f, 0.20230734f, 0.14963217f, -0.38848493f, -0.22342110f, -0.31261083f, -0.18173757f, 0.04495035f, 0.23993739f, 0.10287172f, -0.07831566f, 0.32196790f, 0.32377699f, -0.31870750f, -0.07400906f, 0.21791482f, -0.09506456f, -0.24534194f, -0.28301060f, 0.22816652f, 0.10872156f, 0.25855568f, 0.21198507f, 0.05461924f, 0.03658441f, 0.08301162f, -0.28573865f, 0.22816482f, -0.09388090f, -0.15661438f, 0.10349165f, -0.13379145f, 0.21927072f, -0.20635168f, -0.05813745f, -0.10011926f, 0.05062167f};

const float FC3_BIAS[] = {0.13575736f, 0.04846656f, -0.23084716f, 0.01933598f};

const float SCALER_MEAN[] = {1012.11164122f, 0.06880563f, 0.05755859f, 0.99059866f, -0.16894332f, 0.18025019f, -0.18158645f};

const float SCALER_SCALE[] = {1010.37932655f, 0.05835072f, 0.13138829f, 0.03614945f, 8.42742714f, 4.11352309f, 10.77628703f};

const char* CLASS_NAMES[] = {"brightshaky", "brightstable", "lowlightshaky", "lowlightstable"};

#endif